/*
 * Filter Coefficients (C Source) generated by the Filter Design and Analysis Tool
 * Generated by MATLAB(R) 9.5 and Signal Processing Toolbox 8.1.
 * Generated on: 19-Apr-2021 12:09:18
 */

/*
 * Discrete-Time FIR Filter (real)
 * -------------------------------
 * Filter Structure  : Direct-Form FIR
 * Filter Length     : 327
 * Stable            : Yes
 * Linear Phase      : Yes (Type 1)
 */

/* General type conversion for MATLAB generated C-code  */

/* 
 * Expected path to tmwtypes.h 
 * D:\MATLAB\extern\include\tmwtypes.h 
 */
const int NUMLEN1 = 327;
const double B1[327] = {
  -0.002282396591321, 0.008995180353173,-0.002783142500969,  0.00169967144523,
   0.003018291040011,-0.0006408004022851,-0.002514758410782,-0.0001908996062936,
   0.002057673185238,0.0009272038938074,-0.001382102728273,-0.001355726356307,
  0.0005948290494249, 0.001401119021026,0.0001229722069061,-0.001102293233637,
  -0.0005938978070603,0.0006173284667218,0.0007313015677003,-0.0001589221139207,
  -0.0005942598351252,-9.975106490754e-05,0.0003560305089939,0.0001209455245135,
  -0.0002161600506628,-1.890526626813e-05,0.0002746032920926,-5.267143153018e-06,
  -0.0004632443277931,-0.0001993252253087,0.0005733586164291,0.0006160584521215,
  -0.0003848292037208,-0.001033325012206,-0.0001775149328275, 0.001145344054563,
  0.0009479079351537,-0.0007313845496849,-0.001565223965628,-0.0001754357501825,
    0.00164437062319, 0.001250608842318,-0.001003886889783,-0.001999439351335,
  -0.0001947708540168,  0.00200564142025, 0.001474335576457,-0.001164839283423,
  -0.002256903441987,-0.0002186717638432, 0.002152553432075, 0.001555363708511,
  -0.001179078047639, -0.00225137994583,-0.0002303159955695, 0.002018241139017,
   0.001432756725382,-0.001020176272288, -0.00191493477435,-0.0002080404631376,
    0.00155445500176, 0.001064634145366,-0.0006811151361347,-0.001208511052167,
  -0.0001365267508331, 0.000752796004658,0.0004322404291661,-0.0001718763972443,
  -0.0001427873814592,-2.712870185893e-06,-0.0003545080284571,-0.0004401546898694,
  0.0004661262444311, 0.001223014621452,0.0001908314514845,-0.001676722053736,
  -0.001498667138802, 0.001179573043393, 0.002763449983973,0.0004383730464899,
  -0.003087565426236,-0.002630991882649, 0.001882053250398,  0.00430861165152,
  0.0007126640684103,-0.004411749127134, -0.00369435023481, 0.002473532023588,
   0.005651636315412,0.0009703314549047,-0.005444985278231,-0.004525110063776,
    0.00286159784671,  0.00655009574274, 0.001171492818289,-0.005990219267951,
  -0.004941769350632,  0.00295533502194, 0.006770419773611, 0.001256282957467,
  -0.005850814101049,-0.004783344350857, 0.002689899517106, 0.006119311771494,
   0.001160128553261,-0.004887045265617,-0.003895818317905,   0.0020060466189,
   0.004440269212797, 0.000834786672839,-0.003010537319845,-0.002188959254193,
  0.0009213134448427, 0.001669639970962,0.0002336581668607,-0.0002068990665895,
  0.0003716636789628,-0.0005536596530449,-0.002172579502107,-0.000658440852578,
   0.003444582517108, 0.003734343781218,-0.002331432998768,-0.006961627260465,
  -0.001845389447102, 0.007788968250271, 0.007785411864941,-0.004317543827273,
   -0.01247510296283,-0.003290366088351,  0.01258742200234,  0.01231928870018,
  -0.006372083212294, -0.01840418079825,-0.004935109019457,  0.01754775888446,
    0.01708240821524,-0.008359143894234, -0.02438161193281,-0.006687323107914,
    0.02234578992643,  0.02176470267813, -0.01013582504384, -0.03000358300169,
  -0.008433203244292,  0.02664075432169,  0.02604786000306, -0.01156814272923,
   -0.03487566631318, -0.01005907621042,  0.03013261443076,  0.02962535773911,
   -0.01255957252628, -0.03864665763107, -0.01143227441766,  0.03256604478441,
    0.03222574613325, -0.01304884890934, -0.04102585015204, -0.01244345125418,
    0.03376379269361,  0.03364150823714, -0.01300200362164,   0.9581610309215,
   -0.01300200362164,  0.03364150823714,  0.03376379269361, -0.01244345125418,
   -0.04102585015204, -0.01304884890934,  0.03222574613325,  0.03256604478441,
   -0.01143227441766, -0.03864665763107, -0.01255957252628,  0.02962535773911,
    0.03013261443076, -0.01005907621042, -0.03487566631318, -0.01156814272923,
    0.02604786000306,  0.02664075432169,-0.008433203244292, -0.03000358300169,
   -0.01013582504384,  0.02176470267813,  0.02234578992643,-0.006687323107914,
   -0.02438161193281,-0.008359143894234,  0.01708240821524,  0.01754775888446,
  -0.004935109019457, -0.01840418079825,-0.006372083212294,  0.01231928870018,
    0.01258742200234,-0.003290366088351, -0.01247510296283,-0.004317543827273,
   0.007785411864941, 0.007788968250271,-0.001845389447102,-0.006961627260465,
  -0.002331432998768, 0.003734343781218, 0.003444582517108,-0.000658440852578,
  -0.002172579502107,-0.0005536596530449,0.0003716636789628,-0.0002068990665895,
  0.0002336581668607, 0.001669639970962,0.0009213134448427,-0.002188959254193,
  -0.003010537319845, 0.000834786672839, 0.004440269212797,   0.0020060466189,
  -0.003895818317905,-0.004887045265617, 0.001160128553261, 0.006119311771494,
   0.002689899517106,-0.004783344350857,-0.005850814101049, 0.001256282957467,
   0.006770419773611,  0.00295533502194,-0.004941769350632,-0.005990219267951,
   0.001171492818289,  0.00655009574274,  0.00286159784671,-0.004525110063776,
  -0.005444985278231,0.0009703314549047, 0.005651636315412, 0.002473532023588,
   -0.00369435023481,-0.004411749127134,0.0007126640684103,  0.00430861165152,
   0.001882053250398,-0.002630991882649,-0.003087565426236,0.0004383730464899,
   0.002763449983973, 0.001179573043393,-0.001498667138802,-0.001676722053736,
  0.0001908314514845, 0.001223014621452,0.0004661262444311,-0.0004401546898694,
  -0.0003545080284571,-2.712870185893e-06,-0.0001427873814592,-0.0001718763972443,
  0.0004322404291661, 0.000752796004658,-0.0001365267508331,-0.001208511052167,
  -0.0006811151361347, 0.001064634145366,  0.00155445500176,-0.0002080404631376,
   -0.00191493477435,-0.001020176272288, 0.001432756725382, 0.002018241139017,
  -0.0002303159955695, -0.00225137994583,-0.001179078047639, 0.001555363708511,
   0.002152553432075,-0.0002186717638432,-0.002256903441987,-0.001164839283423,
   0.001474335576457,  0.00200564142025,-0.0001947708540168,-0.001999439351335,
  -0.001003886889783, 0.001250608842318,  0.00164437062319,-0.0001754357501825,
  -0.001565223965628,-0.0007313845496849,0.0009479079351537, 0.001145344054563,
  -0.0001775149328275,-0.001033325012206,-0.0003848292037208,0.0006160584521215,
  0.0005733586164291,-0.0001993252253087,-0.0004632443277931,-5.267143153018e-06,
  0.0002746032920926,-1.890526626813e-05,-0.0002161600506628,0.0001209455245135,
  0.0003560305089939,-9.975106490754e-05,-0.0005942598351252,-0.0001589221139207,
  0.0007313015677003,0.0006173284667218,-0.0005938978070603,-0.001102293233637,
  0.0001229722069061, 0.001401119021026,0.0005948290494249,-0.001355726356307,
  -0.001382102728273,0.0009272038938074, 0.002057673185238,-0.0001908996062936,
  -0.002514758410782,-0.0006408004022851, 0.003018291040011,  0.00169967144523,
  -0.002783142500969, 0.008995180353173,-0.002282396591321
};
