/*
 * Filter Coefficients (C Source) generated by the Filter Design and Analysis Tool
 * Generated by MATLAB(R) 9.5 and Signal Processing Toolbox 8.1.
 * Generated on: 19-Apr-2021 12:08:49
 */

/*
 * Discrete-Time FIR Filter (real)
 * -------------------------------
 * Filter Structure  : Direct-Form FIR
 * Filter Length     : 651
 * Stable            : Yes
 * Linear Phase      : Yes (Type 1)
 */

/* General type conversion for MATLAB generated C-code  */
/* 
 * Expected path to tmwtypes.h 
 * D:\MATLAB\extern\include\tmwtypes.h 
 */
const int NUMLEN0 = 651;
const double B0[651] = {
  -0.004196505347809,   0.0108084368572,0.0004900690798678, -0.00181838949501,
  -0.0009670674327757,0.0005708647005723, 0.001554059333877, 0.001568992558477,
  0.0007959052207288,-0.0002655365947792,-0.001077615688717,-0.001303255412918,
  -0.000910469113637,-0.0001446893248867,0.0006182383420702, 0.001043662346059,
  0.0009805056846347,0.0004994136690806,-0.0001552627435467,-0.0006916682359167,
  -0.0008922371196827,-0.0007033736302544,-0.0002359764613481,0.0002897935596091,
   0.000652716876005,0.0007159718688243,0.0004816248041226, 7.12230668183e-05,
  -0.0003296422309293,-0.0005599856704418,-0.0005410026600392,-0.0003068915127443,
  2.653224734669e-05, 0.000311549390694,0.0004392392205209,0.0003739068007452,
  0.0001671420291986,-7.992697196948e-05,-0.0002579408230786,-0.0003037832667661,
  -0.0002151359474145,-5.203589034613e-05,0.0001042999217065,0.0001823942046696,
  0.0001602761343817,6.251990089671e-05,-4.744040505564e-05,-0.0001112700424133,
  -9.414486446832e-05,-1.280528433975e-05,8.595771382034e-05,0.0001380642596846,
  0.0001088591385847,-6.867104718002e-07,-0.0001365429662765,-0.000232349079157,
  -0.0002239588994799,-0.0001025754135274,9.772209010819e-05,0.0002846607519748,
  0.0003776382677531,0.0003070228893127, 9.70805332714e-05,-0.0001936422577667,
  -0.0004315726742589,-0.0005160828435276,-0.0003967179340379,-8.427423491996e-05,
  0.0002783528384876,0.0005738430614232,0.0006565733891966,0.0004725375192802,
  8.599484672933e-05,-0.0003630361590086,-0.0007068319679214,-0.0007847042348582,
  -0.0005509950131856,-8.619625475856e-05,0.0004381018120301,0.0008238035792849,
  0.0009020263298695,0.0006245845941877, 8.79350306904e-05,-0.0005027220039586,
  -0.0009226564807543,-0.001000015734652,-0.0006890612332967,-9.521026518553e-05,
  0.0005535716394169, 0.001003768575869, 0.001075564834499, 0.000735065298286,
  0.0001029133707827,-0.0005826342986548,-0.001056615039725,-0.001128761216139,
  -0.0007662024139532,-0.0001058034468824,0.0005977161839082, 0.001075236066953,
   0.001143349813527,0.0007760919535961,0.0001132080214596,-0.0005897119832243,
  -0.001062678090488,-0.001125107333377,-0.0007591418730404,-0.0001122709480545,
  0.0005619459643333, 0.001007371673474, 0.001060958233728,0.0007147408894532,
  0.0001121898474118,-0.0005092686135682,-0.0009135974717978,-0.0009565120885563,
  -0.0006396996746502,-0.0001026041338189,0.0004374153428675,0.0007763566147844,
  0.0008016089546559,0.0005294523199082,8.836944302146e-05,-0.0003401003031112,
  -0.0005957994099661,-0.0006041182074424,-0.0003903162659093,-7.067054579507e-05,
  0.0002221044210682,0.0003735021707613,0.0003577673079891,0.0002149061734879,
   3.72392614693e-05,-8.476318741675e-05,-0.0001150213239594,-6.856432378291e-05,
  -9.034512869391e-06,-2.243417171232e-06,-6.900744912554e-05,-0.0001787321619029,
  -0.0002564212627155,-0.0002206013677677,-4.16298512165e-05,0.0002352366981205,
  0.0004989896413935, 0.000611631137768,0.0004751002798467,9.472830540349e-05,
  -0.000410391835441,-0.000840652405517,-0.0009915970080047,-0.0007477883069456,
  -0.0001529561622657,0.0005916910637198, 0.001194236634404, 0.001383731039572,
   0.001029347150953,0.0002159257646473,-0.0007712031306625,-0.001546640420781,
  -0.001774968298106,-0.001312014615193,-0.0002836414723387,0.0009422780236618,
   0.001888113358727, 0.002154854388768, 0.001587361704001,0.0003537693685441,
  -0.001099288530769,-0.002207400622538,-0.002510696234059,-0.001844397740194,
  -0.0004206621781347, 0.001238082885031, 0.002490246032924, 0.002825451301862,
    0.00207211092455,0.0004827663490194,-0.001351802405913,-0.002723465712166,
  -0.003082929983095,-0.002258938483695,-0.0005390765121108, 0.001432479373823,
   0.002895272578593, 0.003271906514212, 0.002395041255915,0.0005840664198906,
  -0.001476360192868,-0.002992980234827,-0.003376781513434,-0.002470133253808,
  -0.0006139766176311,  0.00147912128687, 0.003007820887968, 0.003383499952735,
   0.002470533636854,0.0006254317453382,-0.001436828316358,-0.002924845189577,
  -0.003280834449251,-0.002388588749779,-0.0006139297947053, 0.001344548722405,
   0.002739176345318, 0.003056664158856, 0.002214813375031,0.0005781619585841,
  -0.001200207385938,-0.002442016551408,-0.002704538702714,-0.001945030063169,
  -0.0005136014542733, 0.001004950012066, 0.002031097239395, 0.002218004425995,
   0.001571427120213,0.0004165622606114,-0.0007568894191539,-0.001502875299716,
  -0.001594290007727,-0.001092312571798,-0.0002851644421558,0.0004591000667018,
  0.0008591206637935,0.0008326171678153,0.0005050519093266,0.0001168883258115,
  -0.0001129057822476,-0.0001011919415241, 6.45503513138e-05, 0.000187268067088,
  8.715105220089e-05,-0.0002782215496201,-0.0007632843335901,-0.001088997510275,
   -0.00098037960592,-0.0003287992277497,0.0007076489250763, 0.001725886468037,
   0.002232496209778, 0.001868256847323,0.0006069449497588,-0.001169445690105,
   -0.00277487330443,-0.003482376536637,-0.002841917336448,-0.0009201851995123,
   0.001656241862294, 0.003896967620794, 0.004824149809132, 0.003892130725685,
    0.00126744063416,-0.002160194069056, -0.00507626614143, -0.00623827017267,
  -0.005003099086479,-0.001643523897747, 0.002675253598506, 0.006295860124155,
   0.007705683949974, 0.006158712139258, 0.002043999184797,-0.003189382316267,
  -0.007536371078513,  -0.0092026461036,-0.007343938424997, -0.00246434148593,
   0.003695735384651, 0.008776437494348,  0.01070611456422, 0.008538710648323,
   0.002898177029589,-0.004183657511627, -0.00999616178245,  -0.0121902875039,
  -0.009723529667375,-0.003339399106041, 0.004644018887001,  0.01117339983712,
    0.01362975373083,   0.0108787976219, 0.003780334457635,-0.005070032128777,
    -0.0122884872762, -0.01500009835939, -0.01198462239468,-0.004213982435842,
   0.005452882942165,  0.01332115521087,  0.01627675559788,  0.01302098961571,
   0.004631890970193,-0.005786425302877, -0.01425279114534, -0.01743610075269,
    -0.0139685311361,-0.005026556035315, 0.006064035027366,  0.01506627808778,
    0.01845730209812,  0.01480981415518, 0.005389632598321, -0.00628194179649,
   -0.01574688219653, -0.01932037814343, -0.01552815601991,-0.005713962922855,
   0.006436148155317,  0.01628209017329,  0.02000914166504,   0.0161089217672,
   0.005992433157515,-0.006523797829529, -0.01666124656575,  -0.0205102812388,
    -0.0165424237871,-0.006220294409594, 0.006544638072198,  0.01687934796576,
    0.02081497313481,  0.01681918019259, 0.006390631343463,  -0.0065002041116,
   -0.01693187292329,   0.9790825573329, -0.01693187292329,  -0.0065002041116,
   0.006390631343463,  0.01681918019259,  0.02081497313481,  0.01687934796576,
   0.006544638072198,-0.006220294409594,  -0.0165424237871,  -0.0205102812388,
   -0.01666124656575,-0.006523797829529, 0.005992433157515,   0.0161089217672,
    0.02000914166504,  0.01628209017329, 0.006436148155317,-0.005713962922855,
   -0.01552815601991, -0.01932037814343, -0.01574688219653, -0.00628194179649,
   0.005389632598321,  0.01480981415518,  0.01845730209812,  0.01506627808778,
   0.006064035027366,-0.005026556035315,  -0.0139685311361, -0.01743610075269,
   -0.01425279114534,-0.005786425302877, 0.004631890970193,  0.01302098961571,
    0.01627675559788,  0.01332115521087, 0.005452882942165,-0.004213982435842,
   -0.01198462239468, -0.01500009835939,  -0.0122884872762,-0.005070032128777,
   0.003780334457635,   0.0108787976219,  0.01362975373083,  0.01117339983712,
   0.004644018887001,-0.003339399106041,-0.009723529667375,  -0.0121902875039,
   -0.00999616178245,-0.004183657511627, 0.002898177029589, 0.008538710648323,
    0.01070611456422, 0.008776437494348, 0.003695735384651, -0.00246434148593,
  -0.007343938424997,  -0.0092026461036,-0.007536371078513,-0.003189382316267,
   0.002043999184797, 0.006158712139258, 0.007705683949974, 0.006295860124155,
   0.002675253598506,-0.001643523897747,-0.005003099086479, -0.00623827017267,
   -0.00507626614143,-0.002160194069056,  0.00126744063416, 0.003892130725685,
   0.004824149809132, 0.003896967620794, 0.001656241862294,-0.0009201851995123,
  -0.002841917336448,-0.003482376536637, -0.00277487330443,-0.001169445690105,
  0.0006069449497588, 0.001868256847323, 0.002232496209778, 0.001725886468037,
  0.0007076489250763,-0.0003287992277497, -0.00098037960592,-0.001088997510275,
  -0.0007632843335901,-0.0002782215496201,8.715105220089e-05, 0.000187268067088,
   6.45503513138e-05,-0.0001011919415241,-0.0001129057822476,0.0001168883258115,
  0.0005050519093266,0.0008326171678153,0.0008591206637935,0.0004591000667018,
  -0.0002851644421558,-0.001092312571798,-0.001594290007727,-0.001502875299716,
  -0.0007568894191539,0.0004165622606114, 0.001571427120213, 0.002218004425995,
   0.002031097239395, 0.001004950012066,-0.0005136014542733,-0.001945030063169,
  -0.002704538702714,-0.002442016551408,-0.001200207385938,0.0005781619585841,
   0.002214813375031, 0.003056664158856, 0.002739176345318, 0.001344548722405,
  -0.0006139297947053,-0.002388588749779,-0.003280834449251,-0.002924845189577,
  -0.001436828316358,0.0006254317453382, 0.002470533636854, 0.003383499952735,
   0.003007820887968,  0.00147912128687,-0.0006139766176311,-0.002470133253808,
  -0.003376781513434,-0.002992980234827,-0.001476360192868,0.0005840664198906,
   0.002395041255915, 0.003271906514212, 0.002895272578593, 0.001432479373823,
  -0.0005390765121108,-0.002258938483695,-0.003082929983095,-0.002723465712166,
  -0.001351802405913,0.0004827663490194,  0.00207211092455, 0.002825451301862,
   0.002490246032924, 0.001238082885031,-0.0004206621781347,-0.001844397740194,
  -0.002510696234059,-0.002207400622538,-0.001099288530769,0.0003537693685441,
   0.001587361704001, 0.002154854388768, 0.001888113358727,0.0009422780236618,
  -0.0002836414723387,-0.001312014615193,-0.001774968298106,-0.001546640420781,
  -0.0007712031306625,0.0002159257646473, 0.001029347150953, 0.001383731039572,
   0.001194236634404,0.0005916910637198,-0.0001529561622657,-0.0007477883069456,
  -0.0009915970080047,-0.000840652405517,-0.000410391835441,9.472830540349e-05,
  0.0004751002798467, 0.000611631137768,0.0004989896413935,0.0002352366981205,
  -4.16298512165e-05,-0.0002206013677677,-0.0002564212627155,-0.0001787321619029,
  -6.900744912554e-05,-2.243417171232e-06,-9.034512869391e-06,-6.856432378291e-05,
  -0.0001150213239594,-8.476318741675e-05, 3.72392614693e-05,0.0002149061734879,
  0.0003577673079891,0.0003735021707613,0.0002221044210682,-7.067054579507e-05,
  -0.0003903162659093,-0.0006041182074424,-0.0005957994099661,-0.0003401003031112,
  8.836944302146e-05,0.0005294523199082,0.0008016089546559,0.0007763566147844,
  0.0004374153428675,-0.0001026041338189,-0.0006396996746502,-0.0009565120885563,
  -0.0009135974717978,-0.0005092686135682,0.0001121898474118,0.0007147408894532,
   0.001060958233728, 0.001007371673474,0.0005619459643333,-0.0001122709480545,
  -0.0007591418730404,-0.001125107333377,-0.001062678090488,-0.0005897119832243,
  0.0001132080214596,0.0007760919535961, 0.001143349813527, 0.001075236066953,
  0.0005977161839082,-0.0001058034468824,-0.0007662024139532,-0.001128761216139,
  -0.001056615039725,-0.0005826342986548,0.0001029133707827, 0.000735065298286,
   0.001075564834499, 0.001003768575869,0.0005535716394169,-9.521026518553e-05,
  -0.0006890612332967,-0.001000015734652,-0.0009226564807543,-0.0005027220039586,
   8.79350306904e-05,0.0006245845941877,0.0009020263298695,0.0008238035792849,
  0.0004381018120301,-8.619625475856e-05,-0.0005509950131856,-0.0007847042348582,
  -0.0007068319679214,-0.0003630361590086,8.599484672933e-05,0.0004725375192802,
  0.0006565733891966,0.0005738430614232,0.0002783528384876,-8.427423491996e-05,
  -0.0003967179340379,-0.0005160828435276,-0.0004315726742589,-0.0001936422577667,
   9.70805332714e-05,0.0003070228893127,0.0003776382677531,0.0002846607519748,
  9.772209010819e-05,-0.0001025754135274,-0.0002239588994799,-0.000232349079157,
  -0.0001365429662765,-6.867104718002e-07,0.0001088591385847,0.0001380642596846,
  8.595771382034e-05,-1.280528433975e-05,-9.414486446832e-05,-0.0001112700424133,
  -4.744040505564e-05,6.251990089671e-05,0.0001602761343817,0.0001823942046696,
  0.0001042999217065,-5.203589034613e-05,-0.0002151359474145,-0.0003037832667661,
  -0.0002579408230786,-7.992697196948e-05,0.0001671420291986,0.0003739068007452,
  0.0004392392205209, 0.000311549390694,2.653224734669e-05,-0.0003068915127443,
  -0.0005410026600392,-0.0005599856704418,-0.0003296422309293, 7.12230668183e-05,
  0.0004816248041226,0.0007159718688243, 0.000652716876005,0.0002897935596091,
  -0.0002359764613481,-0.0007033736302544,-0.0008922371196827,-0.0006916682359167,
  -0.0001552627435467,0.0004994136690806,0.0009805056846347, 0.001043662346059,
  0.0006182383420702,-0.0001446893248867,-0.000910469113637,-0.001303255412918,
  -0.001077615688717,-0.0002655365947792,0.0007959052207288, 0.001568992558477,
   0.001554059333877,0.0005708647005723,-0.0009670674327757, -0.00181838949501,
  0.0004900690798678,   0.0108084368572,-0.004196505347809
};
